-4.287994263674081534e-03 -4.287994263674081534e-03 -4.287994263674081534e-03 -4.287994263674081534e-03 -4.287994263674081534e-03 -4.287994263674081534e-03 -4.287994263674081534e-03 -4.287994263674081534e-03 4.280062022150891640e-03 4.278256826071485767e-03 4.286189067717359642e-03 4.278256826071485767e-03 4.280062022150891640e-03 -4.287994263674081534e-03 -4.287994263674081534e-03 -4.392472032312722506e-03 -4.287994263674081534e-03 -4.280062022150891640e-03 -4.287994263674081534e-03 4.235941036668088716e-03 -4.287994263674081534e-03 -4.287994263674081534e-03 4.416376977448422184e-03 4.274532303265046046e-03 4.282464545163815715e-03 4.274532303265046046e-03 4.280062022150891640e-03 -4.287994263674081534e-03 -4.287994263674081534e-03 -4.231836705826114674e-03 -4.287994263674081534e-03 -4.280062022150891640e-03 -4.287994263674081534e-03 4.383126772235857935e-03 -4.287994263674081534e-03 -4.287994263674081534e-03 4.267368359210611459e-03 4.267368359210611459e-03 4.275300601595262429e-03 4.267368359210611459e-03 4.280062022150891640e-03 -4.287994263674081534e-03 -4.287994263674081534e-03 -4.287994263674081534e-03 -4.287994263674081534e-03 -4.287994263674081534e-03 -4.287994263674081534e-03 -4.287994263674081534e-03 -4.287994263674081534e-03
