3.384538868863101041e-02 3.384538868863101041e-02 3.384538868863101041e-02 3.384538868863101041e-02 3.384538868863101041e-02 3.384538868863101041e-02 3.384538868863101041e-02 3.384538868863101041e-02 -8.720316536953577613e-03 8.379581722673373062e-03 -1.674549042900426443e-02 8.379581722673373062e-03 -8.720316536953577613e-03 3.384538868863101041e-02 3.384538868863101041e-02 6.509376296245818064e-05 3.384538868863101041e-02 8.720316536953577613e-03 3.384538868863101041e-02 3.577941645751829596e-05 3.384538868863101041e-02 3.384538868863101041e-02 -7.645375780072391329e-05 8.381205583461372177e-03 -1.674386656821608144e-02 8.381205583461372177e-03 -8.720316536953577613e-03 3.384538868863101041e-02 3.384538868863101041e-02 -3.268069878528737760e-05 3.384538868863101041e-02 8.720316536953577613e-03 3.384538868863101041e-02 -5.523759252776843423e-05 3.384538868863101041e-02 3.384538868863101041e-02 6.292054186492960881e-03 6.292054186492960881e-03 -1.883301796518459942e-02 6.292054186492960881e-03 -8.720316536953577613e-03 3.384538868863101041e-02 3.384538868863101041e-02 3.384538868863101041e-02 3.384538868863101041e-02 3.384538868863101041e-02 3.384538868863101041e-02 3.384538868863101041e-02 3.384538868863101041e-02
3.384538868863101041e-02 3.384538868863101041e-02 3.384538868863101041e-02 3.384538868863101041e-02 3.384538868863101041e-02 3.384538868863101041e-02 3.384538868863101041e-02 3.384538868863101041e-02 -8.720316536953577613e-03 8.379581722673373062e-03 -1.674549042900426443e-02 8.379581722673373062e-03 -8.720316536953577613e-03 3.384538868863101041e-02 3.384538868863101041e-02 6.509376296245818064e-05 3.384538868863101041e-02 8.720316536953577613e-03 3.384538868863101041e-02 3.577941645751829596e-05 3.384538868863101041e-02 3.384538868863101041e-02 -7.645375780072391329e-05 8.381205583461372177e-03 -1.674386656821608144e-02 8.381205583461372177e-03 -8.720316536953577613e-03 3.384538868863101041e-02 3.384538868863101041e-02 -3.268069878528737760e-05 3.384538868863101041e-02 8.720316536953577613e-03 3.384538868863101041e-02 -5.523759252776843423e-05 3.384538868863101041e-02 3.384538868863101041e-02 6.292054186492960881e-03 6.292054186492960881e-03 -1.883301796518459942e-02 6.292054186492960881e-03 -8.720316536953577613e-03 3.384538868863101041e-02 3.384538868863101041e-02 3.384538868863101041e-02 3.384538868863101041e-02 3.384538868863101041e-02 3.384538868863101041e-02 3.384538868863101041e-02 3.384538868863101041e-02
3.384538868863101041e-02 3.384538868863101041e-02 3.384538868863101041e-02 3.384538868863101041e-02 3.384538868863101041e-02 3.384538868863101041e-02 3.384538868863101041e-02 3.384538868863101041e-02 -8.720316536953577613e-03 8.379581722673373062e-03 -1.674549042900426443e-02 8.379581722673373062e-03 -8.720316536953577613e-03 3.384538868863101041e-02 3.384538868863101041e-02 6.509376296245818064e-05 3.384538868863101041e-02 8.720316536953577613e-03 3.384538868863101041e-02 3.577941645751829596e-05 3.384538868863101041e-02 3.384538868863101041e-02 -7.645375780072391329e-05 8.381205583461372177e-03 -1.674386656821608144e-02 8.381205583461372177e-03 -8.720316536953577613e-03 3.384538868863101041e-02 3.384538868863101041e-02 -3.268069878528737760e-05 3.384538868863101041e-02 8.720316536953577613e-03 3.384538868863101041e-02 -5.523759252776843423e-05 3.384538868863101041e-02 3.384538868863101041e-02 6.292054186492960881e-03 6.292054186492960881e-03 -1.883301796518459942e-02 6.292054186492960881e-03 -8.720316536953577613e-03 3.384538868863101041e-02 3.384538868863101041e-02 3.384538868863101041e-02 3.384538868863101041e-02 3.384538868863101041e-02 3.384538868863101041e-02 3.384538868863101041e-02 3.384538868863101041e-02
3.384538868863101041e-02 3.384538868863101041e-02 3.384538868863101041e-02 3.384538868863101041e-02 3.384538868863101041e-02 3.384538868863101041e-02 3.384538868863101041e-02 3.384538868863101041e-02 -8.720316536953577613e-03 8.379581722673373062e-03 -1.674549042900426443e-02 8.379581722673373062e-03 -8.720316536953577613e-03 3.384538868863101041e-02 3.384538868863101041e-02 6.509376296245818064e-05 3.384538868863101041e-02 8.720316536953577613e-03 3.384538868863101041e-02 3.577941645751829596e-05 3.384538868863101041e-02 3.384538868863101041e-02 -7.645375780072391329e-05 8.381205583461372177e-03 -1.674386656821608144e-02 8.381205583461372177e-03 -8.720316536953577613e-03 3.384538868863101041e-02 3.384538868863101041e-02 -3.268069878528737760e-05 3.384538868863101041e-02 8.720316536953577613e-03 3.384538868863101041e-02 -5.523759252776843423e-05 3.384538868863101041e-02 3.384538868863101041e-02 6.292054186492960881e-03 6.292054186492960881e-03 -1.883301796518459942e-02 6.292054186492960881e-03 -8.720316536953577613e-03 3.384538868863101041e-02 3.384538868863101041e-02 3.384538868863101041e-02 3.384538868863101041e-02 3.384538868863101041e-02 3.384538868863101041e-02 3.384538868863101041e-02 3.384538868863101041e-02
3.384538868863101041e-02 3.384538868863101041e-02 3.384538868863101041e-02 3.384538868863101041e-02 3.384538868863101041e-02 3.384538868863101041e-02 3.384538868863101041e-02 3.384538868863101041e-02 -8.720316536953577613e-03 8.379581722673373062e-03 -1.674549042900426443e-02 8.379581722673373062e-03 -8.720316536953577613e-03 3.384538868863101041e-02 3.384538868863101041e-02 6.509376296245818064e-05 3.384538868863101041e-02 8.720316536953577613e-03 3.384538868863101041e-02 3.577941645751829596e-05 3.384538868863101041e-02 3.384538868863101041e-02 -7.645375780072391329e-05 8.381205583461372177e-03 -1.674386656821608144e-02 8.381205583461372177e-03 -8.720316536953577613e-03 3.384538868863101041e-02 3.384538868863101041e-02 -3.268069878528737760e-05 3.384538868863101041e-02 8.720316536953577613e-03 3.384538868863101041e-02 -5.523759252776843423e-05 3.384538868863101041e-02 3.384538868863101041e-02 6.292054186492960881e-03 6.292054186492960881e-03 -1.883301796518459942e-02 6.292054186492960881e-03 -8.720316536953577613e-03 3.384538868863101041e-02 3.384538868863101041e-02 3.384538868863101041e-02 3.384538868863101041e-02 3.384538868863101041e-02 3.384538868863101041e-02 3.384538868863101041e-02 3.384538868863101041e-02
3.384538868863101041e-02 3.384538868863101041e-02 3.384538868863101041e-02 3.384538868863101041e-02 3.384538868863101041e-02 3.384538868863101041e-02 3.384538868863101041e-02 3.384538868863101041e-02 -8.720316536953577613e-03 8.379581722673373062e-03 -1.674549042900426443e-02 8.379581722673373062e-03 -8.720316536953577613e-03 3.384538868863101041e-02 3.384538868863101041e-02 6.509376296245818064e-05 3.384538868863101041e-02 8.720316536953577613e-03 3.384538868863101041e-02 3.577941645751829596e-05 3.384538868863101041e-02 3.384538868863101041e-02 -7.645375780072391329e-05 8.381205583461372177e-03 -1.674386656821608144e-02 8.381205583461372177e-03 -8.720316536953577613e-03 3.384538868863101041e-02 3.384538868863101041e-02 -3.268069878528737760e-05 3.384538868863101041e-02 8.720316536953577613e-03 3.384538868863101041e-02 -5.523759252776843423e-05 3.384538868863101041e-02 3.384538868863101041e-02 6.292054186492960881e-03 6.292054186492960881e-03 -1.883301796518459942e-02 6.292054186492960881e-03 -8.720316536953577613e-03 3.384538868863101041e-02 3.384538868863101041e-02 3.384538868863101041e-02 3.384538868863101041e-02 3.384538868863101041e-02 3.384538868863101041e-02 3.384538868863101041e-02 3.384538868863101041e-02
3.384538868863101041e-02 3.384538868863101041e-02 3.384538868863101041e-02 3.384538868863101041e-02 3.384538868863101041e-02 3.384538868863101041e-02 3.384538868863101041e-02 3.384538868863101041e-02 -8.720316536953577613e-03 8.379581722673373062e-03 -1.674549042900426443e-02 8.379581722673373062e-03 -8.720316536953577613e-03 3.384538868863101041e-02 3.384538868863101041e-02 6.509376296245818064e-05 3.384538868863101041e-02 8.720316536953577613e-03 3.384538868863101041e-02 3.577941645751829596e-05 3.384538868863101041e-02 3.384538868863101041e-02 -7.645375780072391329e-05 8.381205583461372177e-03 -1.674386656821608144e-02 8.381205583461372177e-03 -8.720316536953577613e-03 3.384538868863101041e-02 3.384538868863101041e-02 -3.268069878528737760e-05 3.384538868863101041e-02 8.720316536953577613e-03 3.384538868863101041e-02 -5.523759252776843423e-05 3.384538868863101041e-02 3.384538868863101041e-02 6.292054186492960881e-03 6.292054186492960881e-03 -1.883301796518459942e-02 6.292054186492960881e-03 -8.720316536953577613e-03 3.384538868863101041e-02 3.384538868863101041e-02 3.384538868863101041e-02 3.384538868863101041e-02 3.384538868863101041e-02 3.384538868863101041e-02 3.384538868863101041e-02 3.384538868863101041e-02
3.384538868863101041e-02 3.384538868863101041e-02 3.384538868863101041e-02 3.384538868863101041e-02 3.384538868863101041e-02 3.384538868863101041e-02 3.384538868863101041e-02 3.384538868863101041e-02 -8.720316536953577613e-03 8.379581722673373062e-03 -1.674549042900426443e-02 8.379581722673373062e-03 -8.720316536953577613e-03 3.384538868863101041e-02 3.384538868863101041e-02 6.509376296245818064e-05 3.384538868863101041e-02 8.720316536953577613e-03 3.384538868863101041e-02 3.577941645751829596e-05 3.384538868863101041e-02 3.384538868863101041e-02 -7.645375780072391329e-05 8.381205583461372177e-03 -1.674386656821608144e-02 8.381205583461372177e-03 -8.720316536953577613e-03 3.384538868863101041e-02 3.384538868863101041e-02 -3.268069878528737760e-05 3.384538868863101041e-02 8.720316536953577613e-03 3.384538868863101041e-02 -5.523759252776843423e-05 3.384538868863101041e-02 3.384538868863101041e-02 6.292054186492960881e-03 6.292054186492960881e-03 -1.883301796518459942e-02 6.292054186492960881e-03 -8.720316536953577613e-03 3.384538868863101041e-02 3.384538868863101041e-02 3.384538868863101041e-02 3.384538868863101041e-02 3.384538868863101041e-02 3.384538868863101041e-02 3.384538868863101041e-02 3.384538868863101041e-02
-8.725690288864175123e-03 -8.725690288864175123e-03 -8.725690288864175123e-03 -8.725690288864175123e-03 -8.725690288864175123e-03 -8.725690288864175123e-03 -8.725690288864175123e-03 -8.725690288864175123e-03 1.259361265133062124e-01 3.902978391447207984e-02 -7.818065230996999737e-02 3.902978391447207984e-02 1.259361265133062124e-01 -8.725690288864175123e-03 -8.725690288864175123e-03 -5.764534365623886613e-04 -8.725690288864175123e-03 -1.259361265133062124e-01 -8.725690288864175123e-03 -3.168543462917634791e-04 -8.725690288864175123e-03 -8.725690288864175123e-03 6.770494835269204228e-04 3.901540416572403525e-02 -7.819503205871798646e-02 3.901540416572403525e-02 1.259361265133062124e-01 -8.725690288864175123e-03 -8.725690288864175123e-03 2.894144220858397946e-04 -8.725690288864175123e-03 -1.259361265133062124e-01 -8.725690288864175123e-03 4.891709006768565904e-04 -8.725690288864175123e-03 -8.725690288864175123e-03 2.920708939535576754e-02 2.920708939535576754e-02 -8.800334682908624029e-02 2.920708939535576754e-02 1.259361265133062124e-01 -8.725690288864175123e-03 -8.725690288864175123e-03 -8.725690288864175123e-03 -8.725690288864175123e-03 -8.725690288864175123e-03 -8.725690288864175123e-03 -8.725690288864175123e-03 -8.725690288864175123e-03
8.376490899024910397e-03 8.376490899024910397e-03 8.376490899024910397e-03 8.376490899024910397e-03 8.376490899024910397e-03 8.376490899024910397e-03 8.376490899024910397e-03 8.376490899024910397e-03 3.909985207620186171e-02 3.491949920241000371e-01 3.017186490488728556e-01 3.491949920241000371e-01 3.909985207620186171e-02 8.376490899024910397e-03 8.376490899024910397e-03 5.171906701238142409e-04 8.376490899024910397e-03 -3.909985207620186171e-02 8.376490899024910397e-03 2.842706922250281534e-04 8.376490899024910397e-03 8.376490899024910397e-03 -6.074459596879865997e-04 1.587455992859724413e-02 -3.160178304662961124e-02 1.587455992859724413e-02 3.909985207620186171e-02 8.376490899024910397e-03 8.376490899024910397e-03 -2.596645836569924735e-04 8.376490899024910397e-03 -3.909985207620186171e-02 8.376490899024910397e-03 -4.388900517533687829e-04 8.376490899024910397e-03 8.376490899024910397e-03 1.195478610281150086e-02 1.195478610281150086e-02 -3.552155687241526777e-02 1.195478610281150086e-02 3.909985207620186171e-02 8.376490899024910397e-03 8.376490899024910397e-03 8.376490899024910397e-03 8.376490899024910397e-03 8.376490899024910397e-03 8.376490899024910397e-03 8.376490899024910397e-03 8.376490899024910397e-03
-1.674320750074194397e-02 -1.674320750074194397e-02 -1.674320750074194397e-02 -1.674320750074194397e-02 -1.674320750074194397e-02 -1.674320750074194397e-02 -1.674320750074194397e-02 -1.674320750074194397e-02 -7.811595790015087026e-02 3.017856263869547750e-01 3.966447917878468954e-01 3.017856263869547750e-01 -7.811595790015087026e-02 -1.674320750074194397e-02 -1.674320750074194397e-02 1.028550343723569176e-03 -1.674320750074194397e-02 7.811595790015087026e-02 -1.674320750074194397e-02 5.653456220591693412e-04 -1.674320750074194397e-02 -1.674320750074194397e-02 -1.208041685413802947e-03 -3.152204982058814248e-02 6.333711558030429012e-02 -3.152204982058814248e-02 -7.811595790015087026e-02 -1.674320750074194397e-02 -1.674320750074194397e-02 -5.163983069575776809e-04 -1.674320750074194397e-02 7.811595790015087026e-02 -1.674320750074194397e-02 -8.728233599023612786e-04 -1.674320750074194397e-02 -1.674320750074194397e-02 -2.354435747903713128e-02 -2.354435747903713128e-02 7.131480792185541928e-02 -2.354435747903713128e-02 -7.811595790015087026e-02 -1.674320750074194397e-02 -1.674320750074194397e-02 -1.674320750074194397e-02 -1.674320750074194397e-02 -1.674320750074194397e-02 -1.674320750074194397e-02 -1.674320750074194397e-02 -1.674320750074194397e-02
8.376490899024910397e-03 8.376490899024910397e-03 8.376490899024910397e-03 8.376490899024910397e-03 8.376490899024910397e-03 8.376490899024910397e-03 8.376490899024910397e-03 8.376490899024910397e-03 3.909985207620186171e-02 3.491949920241000371e-01 3.017186490488728556e-01 3.491949920241000371e-01 3.909985207620186171e-02 8.376490899024910397e-03 8.376490899024910397e-03 5.171906701238142409e-04 8.376490899024910397e-03 -3.909985207620186171e-02 8.376490899024910397e-03 2.842706922250281534e-04 8.376490899024910397e-03 8.376490899024910397e-03 -6.074459596879865997e-04 1.587455992859724413e-02 -3.160178304662961124e-02 1.587455992859724413e-02 3.909985207620186171e-02 8.376490899024910397e-03 8.376490899024910397e-03 -2.596645836569924735e-04 8.376490899024910397e-03 -3.909985207620186171e-02 8.376490899024910397e-03 -4.388900517533687829e-04 8.376490899024910397e-03 8.376490899024910397e-03 1.195478610281150086e-02 1.195478610281150086e-02 -3.552155687241526777e-02 1.195478610281150086e-02 3.909985207620186171e-02 8.376490899024910397e-03 8.376490899024910397e-03 8.376490899024910397e-03 8.376490899024910397e-03 8.376490899024910397e-03 8.376490899024910397e-03 8.376490899024910397e-03 8.376490899024910397e-03
-8.725690288864175123e-03 -8.725690288864175123e-03 -8.725690288864175123e-03 -8.725690288864175123e-03 -8.725690288864175123e-03 -8.725690288864175123e-03 -8.725690288864175123e-03 -8.725690288864175123e-03 1.259361265133062124e-01 3.902978391447207984e-02 -7.818065230996999737e-02 3.902978391447207984e-02 1.259361265133062124e-01 -8.725690288864175123e-03 -8.725690288864175123e-03 -5.764534365623886613e-04 -8.725690288864175123e-03 -1.259361265133062124e-01 -8.725690288864175123e-03 -3.168543462917634791e-04 -8.725690288864175123e-03 -8.725690288864175123e-03 6.770494835269204228e-04 3.901540416572403525e-02 -7.819503205871798646e-02 3.901540416572403525e-02 1.259361265133062124e-01 -8.725690288864175123e-03 -8.725690288864175123e-03 2.894144220858397946e-04 -8.725690288864175123e-03 -1.259361265133062124e-01 -8.725690288864175123e-03 4.891709006768565904e-04 -8.725690288864175123e-03 -8.725690288864175123e-03 2.920708939535576754e-02 2.920708939535576754e-02 -8.800334682908624029e-02 2.920708939535576754e-02 1.259361265133062124e-01 -8.725690288864175123e-03 -8.725690288864175123e-03 -8.725690288864175123e-03 -8.725690288864175123e-03 -8.725690288864175123e-03 -8.725690288864175123e-03 -8.725690288864175123e-03 -8.725690288864175123e-03
3.384538868863101041e-02 3.384538868863101041e-02 3.384538868863101041e-02 3.384538868863101041e-02 3.384538868863101041e-02 3.384538868863101041e-02 3.384538868863101041e-02 3.384538868863101041e-02 -8.720316536953577613e-03 8.379581722673373062e-03 -1.674549042900426443e-02 8.379581722673373062e-03 -8.720316536953577613e-03 3.384538868863101041e-02 3.384538868863101041e-02 6.509376296245818064e-05 3.384538868863101041e-02 8.720316536953577613e-03 3.384538868863101041e-02 3.577941645751829596e-05 3.384538868863101041e-02 3.384538868863101041e-02 -7.645375780072391329e-05 8.381205583461372177e-03 -1.674386656821608144e-02 8.381205583461372177e-03 -8.720316536953577613e-03 3.384538868863101041e-02 3.384538868863101041e-02 -3.268069878528737760e-05 3.384538868863101041e-02 8.720316536953577613e-03 3.384538868863101041e-02 -5.523759252776843423e-05 3.384538868863101041e-02 3.384538868863101041e-02 6.292054186492960881e-03 6.292054186492960881e-03 -1.883301796518459942e-02 6.292054186492960881e-03 -8.720316536953577613e-03 3.384538868863101041e-02 3.384538868863101041e-02 3.384538868863101041e-02 3.384538868863101041e-02 3.384538868863101041e-02 3.384538868863101041e-02 3.384538868863101041e-02 3.384538868863101041e-02
3.384538868863101041e-02 3.384538868863101041e-02 3.384538868863101041e-02 3.384538868863101041e-02 3.384538868863101041e-02 3.384538868863101041e-02 3.384538868863101041e-02 3.384538868863101041e-02 -8.720316536953577613e-03 8.379581722673373062e-03 -1.674549042900426443e-02 8.379581722673373062e-03 -8.720316536953577613e-03 3.384538868863101041e-02 3.384538868863101041e-02 6.509376296245818064e-05 3.384538868863101041e-02 8.720316536953577613e-03 3.384538868863101041e-02 3.577941645751829596e-05 3.384538868863101041e-02 3.384538868863101041e-02 -7.645375780072391329e-05 8.381205583461372177e-03 -1.674386656821608144e-02 8.381205583461372177e-03 -8.720316536953577613e-03 3.384538868863101041e-02 3.384538868863101041e-02 -3.268069878528737760e-05 3.384538868863101041e-02 8.720316536953577613e-03 3.384538868863101041e-02 -5.523759252776843423e-05 3.384538868863101041e-02 3.384538868863101041e-02 6.292054186492960881e-03 6.292054186492960881e-03 -1.883301796518459942e-02 6.292054186492960881e-03 -8.720316536953577613e-03 3.384538868863101041e-02 3.384538868863101041e-02 3.384538868863101041e-02 3.384538868863101041e-02 3.384538868863101041e-02 3.384538868863101041e-02 3.384538868863101041e-02 3.384538868863101041e-02
-1.445913850033634035e-05 -1.445913850033634035e-05 -1.445913850033634035e-05 -1.445913850033634035e-05 -1.445913850033634035e-05 -1.445913850033634035e-05 -1.445913850033634035e-05 -1.445913850033634035e-05 -1.238225337184680971e-04 -2.597309741233444426e-04 -1.214493019046386675e-04 -2.597309741233444426e-04 -1.238225337184680971e-04 -1.445913850033634035e-05 -1.445913850033634035e-05 9.969488972166182794e-01 -1.445913850033634035e-05 1.238225337184680971e-04 -1.445913850033634035e-05 -1.677148727814780065e-03 -1.445913850033634035e-05 -1.445913850033634035e-05 3.583527816996192467e-03 -3.358414311824564646e-04 -1.975597589636781564e-04 -3.358414311824564646e-04 -1.238225337184680971e-04 -1.445913850033634035e-05 -1.445913850033634035e-05 1.531814105075538380e-03 -1.445913850033634035e-05 1.238225337184680971e-04 -1.445913850033634035e-05 2.589059331339964472e-03 -1.445913850033634035e-05 -1.445913850033634035e-05 -5.401404895395442527e-04 -5.401404895395442527e-04 -4.018588173207222783e-04 -5.401404895395442527e-04 -1.238225337184680971e-04 -1.445913850033634035e-05 -1.445913850033634035e-05 -1.445913850033634035e-05 -1.445913850033634035e-05 -1.445913850033634035e-05 -1.445913850033634035e-05 -1.445913850033634035e-05 -1.445913850033634035e-05
3.384538868863101041e-02 3.384538868863101041e-02 3.384538868863101041e-02 3.384538868863101041e-02 3.384538868863101041e-02 3.384538868863101041e-02 3.384538868863101041e-02 3.384538868863101041e-02 -8.720316536953577613e-03 8.379581722673373062e-03 -1.674549042900426443e-02 8.379581722673373062e-03 -8.720316536953577613e-03 3.384538868863101041e-02 3.384538868863101041e-02 6.509376296245818064e-05 3.384538868863101041e-02 8.720316536953577613e-03 3.384538868863101041e-02 3.577941645751829596e-05 3.384538868863101041e-02 3.384538868863101041e-02 -7.645375780072391329e-05 8.381205583461372177e-03 -1.674386656821608144e-02 8.381205583461372177e-03 -8.720316536953577613e-03 3.384538868863101041e-02 3.384538868863101041e-02 -3.268069878528737760e-05 3.384538868863101041e-02 8.720316536953577613e-03 3.384538868863101041e-02 -5.523759252776843423e-05 3.384538868863101041e-02 3.384538868863101041e-02 6.292054186492960881e-03 6.292054186492960881e-03 -1.883301796518459942e-02 6.292054186492960881e-03 -8.720316536953577613e-03 3.384538868863101041e-02 3.384538868863101041e-02 3.384538868863101041e-02 3.384538868863101041e-02 3.384538868863101041e-02 3.384538868863101041e-02 3.384538868863101041e-02 3.384538868863101041e-02
8.725690288864175123e-03 8.725690288864175123e-03 8.725690288864175123e-03 8.725690288864175123e-03 8.725690288864175123e-03 8.725690288864175123e-03 8.725690288864175123e-03 8.725690288864175123e-03 -1.259361265133062124e-01 -3.902978391447207984e-02 7.818065230996999737e-02 -3.902978391447207984e-02 -1.259361265133062124e-01 8.725690288864175123e-03 8.725690288864175123e-03 5.764534365623886613e-04 8.725690288864175123e-03 1.259361265133062124e-01 8.725690288864175123e-03 3.168543462917634791e-04 8.725690288864175123e-03 8.725690288864175123e-03 -6.770494835269204228e-04 -3.901540416572403525e-02 7.819503205871798646e-02 -3.901540416572403525e-02 -1.259361265133062124e-01 8.725690288864175123e-03 8.725690288864175123e-03 -2.894144220858397946e-04 8.725690288864175123e-03 1.259361265133062124e-01 8.725690288864175123e-03 -4.891709006768565904e-04 8.725690288864175123e-03 8.725690288864175123e-03 -2.920708939535576754e-02 -2.920708939535576754e-02 8.800334682908624029e-02 -2.920708939535576754e-02 -1.259361265133062124e-01 8.725690288864175123e-03 8.725690288864175123e-03 8.725690288864175123e-03 8.725690288864175123e-03 8.725690288864175123e-03 8.725690288864175123e-03 8.725690288864175123e-03 8.725690288864175123e-03
3.384538868863101041e-02 3.384538868863101041e-02 3.384538868863101041e-02 3.384538868863101041e-02 3.384538868863101041e-02 3.384538868863101041e-02 3.384538868863101041e-02 3.384538868863101041e-02 -8.720316536953577613e-03 8.379581722673373062e-03 -1.674549042900426443e-02 8.379581722673373062e-03 -8.720316536953577613e-03 3.384538868863101041e-02 3.384538868863101041e-02 6.509376296245818064e-05 3.384538868863101041e-02 8.720316536953577613e-03 3.384538868863101041e-02 3.577941645751829596e-05 3.384538868863101041e-02 3.384538868863101041e-02 -7.645375780072391329e-05 8.381205583461372177e-03 -1.674386656821608144e-02 8.381205583461372177e-03 -8.720316536953577613e-03 3.384538868863101041e-02 3.384538868863101041e-02 -3.268069878528737760e-05 3.384538868863101041e-02 8.720316536953577613e-03 3.384538868863101041e-02 -5.523759252776843423e-05 3.384538868863101041e-02 3.384538868863101041e-02 6.292054186492960881e-03 6.292054186492960881e-03 -1.883301796518459942e-02 6.292054186492960881e-03 -8.720316536953577613e-03 3.384538868863101041e-02 3.384538868863101041e-02 3.384538868863101041e-02 3.384538868863101041e-02 3.384538868863101041e-02 3.384538868863101041e-02 3.384538868863101041e-02 3.384538868863101041e-02
-7.879782867674157049e-06 -7.879782867674157049e-06 -7.879782867674157049e-06 -7.879782867674157049e-06 -7.879782867674157049e-06 -7.879782867674157049e-06 -7.879782867674157049e-06 -7.879782867674157049e-06 -6.747557474356720571e-05 -1.415422760637595337e-04 -6.618691845250509619e-05 -1.415422760637595337e-04 -6.747557474356720571e-05 -7.879782867674157049e-06 -7.879782867674157049e-06 -1.662720762712657264e-03 -7.879782867674157049e-06 6.747557474356720571e-05 -7.879782867674157049e-06 9.990860185300639573e-01 -7.879782867674157049e-06 -7.879782867674157049e-06 1.952866825970171315e-03 -1.830190620088249450e-04 -1.076637043976164370e-04 -1.830190620088249450e-04 -6.747557474356720571e-05 -7.879782867674157049e-06 -7.879782867674157049e-06 8.347717614989136163e-04 -7.879782867674157049e-06 6.747557474356720571e-05 -7.879782867674157049e-06 1.410921015885479007e-03 -7.879782867674157049e-06 -7.879782867674157049e-06 -2.943525984403842191e-04 -2.943525984403842191e-04 -2.189972408290093403e-04 -2.943525984403842191e-04 -6.747557474356720571e-05 -7.879782867674157049e-06 -7.879782867674157049e-06 -7.879782867674157049e-06 -7.879782867674157049e-06 -7.879782867674157049e-06 -7.879782867674157049e-06 -7.879782867674157049e-06 -7.879782867674157049e-06
3.384538868863101041e-02 3.384538868863101041e-02 3.384538868863101041e-02 3.384538868863101041e-02 3.384538868863101041e-02 3.384538868863101041e-02 3.384538868863101041e-02 3.384538868863101041e-02 -8.720316536953577613e-03 8.379581722673373062e-03 -1.674549042900426443e-02 8.379581722673373062e-03 -8.720316536953577613e-03 3.384538868863101041e-02 3.384538868863101041e-02 6.509376296245818064e-05 3.384538868863101041e-02 8.720316536953577613e-03 3.384538868863101041e-02 3.577941645751829596e-05 3.384538868863101041e-02 3.384538868863101041e-02 -7.645375780072391329e-05 8.381205583461372177e-03 -1.674386656821608144e-02 8.381205583461372177e-03 -8.720316536953577613e-03 3.384538868863101041e-02 3.384538868863101041e-02 -3.268069878528737760e-05 3.384538868863101041e-02 8.720316536953577613e-03 3.384538868863101041e-02 -5.523759252776843423e-05 3.384538868863101041e-02 3.384538868863101041e-02 6.292054186492960881e-03 6.292054186492960881e-03 -1.883301796518459942e-02 6.292054186492960881e-03 -8.720316536953577613e-03 3.384538868863101041e-02 3.384538868863101041e-02 3.384538868863101041e-02 3.384538868863101041e-02 3.384538868863101041e-02 3.384538868863101041e-02 3.384538868863101041e-02 3.384538868863101041e-02
3.384538868863101041e-02 3.384538868863101041e-02 3.384538868863101041e-02 3.384538868863101041e-02 3.384538868863101041e-02 3.384538868863101041e-02 3.384538868863101041e-02 3.384538868863101041e-02 -8.720316536953577613e-03 8.379581722673373062e-03 -1.674549042900426443e-02 8.379581722673373062e-03 -8.720316536953577613e-03 3.384538868863101041e-02 3.384538868863101041e-02 6.509376296245818064e-05 3.384538868863101041e-02 8.720316536953577613e-03 3.384538868863101041e-02 3.577941645751829596e-05 3.384538868863101041e-02 3.384538868863101041e-02 -7.645375780072391329e-05 8.381205583461372177e-03 -1.674386656821608144e-02 8.381205583461372177e-03 -8.720316536953577613e-03 3.384538868863101041e-02 3.384538868863101041e-02 -3.268069878528737760e-05 3.384538868863101041e-02 8.720316536953577613e-03 3.384538868863101041e-02 -5.523759252776843423e-05 3.384538868863101041e-02 3.384538868863101041e-02 6.292054186492960881e-03 6.292054186492960881e-03 -1.883301796518459942e-02 6.292054186492960881e-03 -8.720316536953577613e-03 3.384538868863101041e-02 3.384538868863101041e-02 3.384538868863101041e-02 3.384538868863101041e-02 3.384538868863101041e-02 3.384538868863101041e-02 3.384538868863101041e-02 3.384538868863101041e-02
3.180007706578295487e-05 3.180007706578295487e-05 3.180007706578295487e-05 3.180007706578295487e-05 3.180007706578295487e-05 3.180007706578295487e-05 3.180007706578295487e-05 3.180007706578295487e-05 2.723703780743070733e-04 5.712652073431268799e-04 2.670947522030027400e-04 5.712652073431268799e-04 2.723703780743070733e-04 3.180007706578295487e-05 3.180007706578295487e-05 6.710733462708447054e-03 3.180007706578295487e-05 -2.723703780743070733e-04 3.180007706578295487e-05 3.688712428466965274e-03 3.180007706578295487e-05 3.180007706578295487e-05 9.921181720498212231e-01 7.386711066440614093e-04 4.345006515039103812e-04 7.386711066440614093e-04 2.723703780743070733e-04 3.180007706578295487e-05 3.180007706578295487e-05 -3.369146851792004932e-03 3.180007706578295487e-05 -2.723703780743070733e-04 3.180007706578295487e-05 -5.694554641235727820e-03 3.180007706578295487e-05 3.180007706578295487e-05 1.188018744721979934e-03 1.188018744721979934e-03 8.838482895818786707e-04 1.188018744721979934e-03 2.723703780743070733e-04 3.180007706578295487e-05 3.180007706578295487e-05 3.180007706578295487e-05 3.180007706578295487e-05 3.180007706578295487e-05 3.180007706578295487e-05 3.180007706578295487e-05 3.180007706578295487e-05
8.370889341103127795e-03 8.370889341103127795e-03 8.370889341103127795e-03 8.370889341103127795e-03 8.370889341103127795e-03 8.370889341103127795e-03 8.370889341103127795e-03 8.370889341103127795e-03 3.905186548040860683e-02 1.576102385777257420e-02 -3.166173096373917084e-02 1.576102385777257420e-02 3.905186548040860683e-02 8.370889341103127795e-03 8.370889341103127795e-03 -6.649811525068789059e-04 8.370889341103127795e-03 -3.905186548040860683e-02 8.370889341103127795e-03 -3.655219518943732195e-04 8.370889341103127795e-03 8.370889341103127795e-03 7.810328004790227738e-04 3.490777677781966015e-01 3.016550129566836769e-01 3.490777677781966015e-01 3.905186548040860683e-02 8.370889341103127795e-03 8.370889341103127795e-03 3.338530097966349694e-04 8.370889341103127795e-03 -3.905186548040860683e-02 8.370889341103127795e-03 5.642839626236106562e-04 8.370889341103127795e-03 8.370889341103127795e-03 1.174550097701893003e-02 1.174550097701893003e-02 -3.567725384449312032e-02 1.174550097701893003e-02 3.905186548040860683e-02 8.370889341103127795e-03 8.370889341103127795e-03 8.370889341103127795e-03 8.370889341103127795e-03 8.370889341103127795e-03 8.370889341103127795e-03 8.370889341103127795e-03 8.370889341103127795e-03
-1.674880905866368841e-02 -1.674880905866368841e-02 -1.674880905866368841e-02 -1.674880905866368841e-02 -1.674880905866368841e-02 -1.674880905866368841e-02 -1.674880905866368841e-02 -1.674880905866368841e-02 -7.816394449594402105e-02 -3.164834177937261156e-02 6.326441177523449422e-02 -3.164834177937261156e-02 -7.816394449594402105e-02 -1.674880905866368841e-02 -1.674880905866368841e-02 -1.536214789069027668e-04 -1.674880905866368841e-02 7.816394449594402105e-02 -1.674880905866368841e-02 -8.444702206034444987e-05 -1.674880905866368841e-02 -1.674880905866368841e-02 1.804370747529144778e-04 3.016811580290110761e-01 3.965939115836185636e-01 3.016811580290110761e-01 -7.816394449594402105e-02 -1.674880905866368841e-02 -1.674880905866368841e-02 7.711928649610569331e-05 -1.674880905866368841e-02 7.816394449594402105e-02 -1.674880905866368841e-02 1.303506544745100927e-04 -1.674880905866368841e-02 -1.674880905866368841e-02 -2.375364260482969864e-02 -2.375364260482969864e-02 7.115911094977755980e-02 -2.375364260482969864e-02 -7.816394449594402105e-02 -1.674880905866368841e-02 -1.674880905866368841e-02 -1.674880905866368841e-02 -1.674880905866368841e-02 -1.674880905866368841e-02 -1.674880905866368841e-02 -1.674880905866368841e-02 -1.674880905866368841e-02
8.370889341103127795e-03 8.370889341103127795e-03 8.370889341103127795e-03 8.370889341103127795e-03 8.370889341103127795e-03 8.370889341103127795e-03 8.370889341103127795e-03 8.370889341103127795e-03 3.905186548040860683e-02 1.576102385777257420e-02 -3.166173096373917084e-02 1.576102385777257420e-02 3.905186548040860683e-02 8.370889341103127795e-03 8.370889341103127795e-03 -6.649811525068789059e-04 8.370889341103127795e-03 -3.905186548040860683e-02 8.370889341103127795e-03 -3.655219518943732195e-04 8.370889341103127795e-03 8.370889341103127795e-03 7.810328004790227738e-04 3.490777677781966015e-01 3.016550129566836769e-01 3.490777677781966015e-01 3.905186548040860683e-02 8.370889341103127795e-03 8.370889341103127795e-03 3.338530097966349694e-04 8.370889341103127795e-03 -3.905186548040860683e-02 8.370889341103127795e-03 5.642839626236106562e-04 8.370889341103127795e-03 8.370889341103127795e-03 1.174550097701893003e-02 1.174550097701893003e-02 -3.567725384449312032e-02 1.174550097701893003e-02 3.905186548040860683e-02 8.370889341103127795e-03 8.370889341103127795e-03 8.370889341103127795e-03 8.370889341103127795e-03 8.370889341103127795e-03 8.370889341103127795e-03 8.370889341103127795e-03 8.370889341103127795e-03
-8.725690288864175123e-03 -8.725690288864175123e-03 -8.725690288864175123e-03 -8.725690288864175123e-03 -8.725690288864175123e-03 -8.725690288864175123e-03 -8.725690288864175123e-03 -8.725690288864175123e-03 1.259361265133062124e-01 3.902978391447207984e-02 -7.818065230996999737e-02 3.902978391447207984e-02 1.259361265133062124e-01 -8.725690288864175123e-03 -8.725690288864175123e-03 -5.764534365623886613e-04 -8.725690288864175123e-03 -1.259361265133062124e-01 -8.725690288864175123e-03 -3.168543462917634791e-04 -8.725690288864175123e-03 -8.725690288864175123e-03 6.770494835269204228e-04 3.901540416572403525e-02 -7.819503205871798646e-02 3.901540416572403525e-02 1.259361265133062124e-01 -8.725690288864175123e-03 -8.725690288864175123e-03 2.894144220858397946e-04 -8.725690288864175123e-03 -1.259361265133062124e-01 -8.725690288864175123e-03 4.891709006768565904e-04 -8.725690288864175123e-03 -8.725690288864175123e-03 2.920708939535576754e-02 2.920708939535576754e-02 -8.800334682908624029e-02 2.920708939535576754e-02 1.259361265133062124e-01 -8.725690288864175123e-03 -8.725690288864175123e-03 -8.725690288864175123e-03 -8.725690288864175123e-03 -8.725690288864175123e-03 -8.725690288864175123e-03 -8.725690288864175123e-03 -8.725690288864175123e-03
3.384538868863101041e-02 3.384538868863101041e-02 3.384538868863101041e-02 3.384538868863101041e-02 3.384538868863101041e-02 3.384538868863101041e-02 3.384538868863101041e-02 3.384538868863101041e-02 -8.720316536953577613e-03 8.379581722673373062e-03 -1.674549042900426443e-02 8.379581722673373062e-03 -8.720316536953577613e-03 3.384538868863101041e-02 3.384538868863101041e-02 6.509376296245818064e-05 3.384538868863101041e-02 8.720316536953577613e-03 3.384538868863101041e-02 3.577941645751829596e-05 3.384538868863101041e-02 3.384538868863101041e-02 -7.645375780072391329e-05 8.381205583461372177e-03 -1.674386656821608144e-02 8.381205583461372177e-03 -8.720316536953577613e-03 3.384538868863101041e-02 3.384538868863101041e-02 -3.268069878528737760e-05 3.384538868863101041e-02 8.720316536953577613e-03 3.384538868863101041e-02 -5.523759252776843423e-05 3.384538868863101041e-02 3.384538868863101041e-02 6.292054186492960881e-03 6.292054186492960881e-03 -1.883301796518459942e-02 6.292054186492960881e-03 -8.720316536953577613e-03 3.384538868863101041e-02 3.384538868863101041e-02 3.384538868863101041e-02 3.384538868863101041e-02 3.384538868863101041e-02 3.384538868863101041e-02 3.384538868863101041e-02 3.384538868863101041e-02
3.384538868863101041e-02 3.384538868863101041e-02 3.384538868863101041e-02 3.384538868863101041e-02 3.384538868863101041e-02 3.384538868863101041e-02 3.384538868863101041e-02 3.384538868863101041e-02 -8.720316536953577613e-03 8.379581722673373062e-03 -1.674549042900426443e-02 8.379581722673373062e-03 -8.720316536953577613e-03 3.384538868863101041e-02 3.384538868863101041e-02 6.509376296245818064e-05 3.384538868863101041e-02 8.720316536953577613e-03 3.384538868863101041e-02 3.577941645751829596e-05 3.384538868863101041e-02 3.384538868863101041e-02 -7.645375780072391329e-05 8.381205583461372177e-03 -1.674386656821608144e-02 8.381205583461372177e-03 -8.720316536953577613e-03 3.384538868863101041e-02 3.384538868863101041e-02 -3.268069878528737760e-05 3.384538868863101041e-02 8.720316536953577613e-03 3.384538868863101041e-02 -5.523759252776843423e-05 3.384538868863101041e-02 3.384538868863101041e-02 6.292054186492960881e-03 6.292054186492960881e-03 -1.883301796518459942e-02 6.292054186492960881e-03 -8.720316536953577613e-03 3.384538868863101041e-02 3.384538868863101041e-02 3.384538868863101041e-02 3.384538868863101041e-02 3.384538868863101041e-02 3.384538868863101041e-02 3.384538868863101041e-02 3.384538868863101041e-02
8.748823073678076281e-06 8.748823073678076281e-06 8.748823073678076281e-06 8.748823073678076281e-06 8.748823073678076281e-06 8.748823073678076281e-06 8.748823073678076281e-06 8.748823073678076281e-06 7.493077558900437276e-05 1.571630771330552185e-04 7.348347847031275551e-05 1.571630771330552185e-04 7.493077558900437276e-05 8.748823073678076281e-06 8.748823073678076281e-06 1.846228819757953681e-03 8.748823073678076281e-06 -7.493077558900437276e-05 8.748823073678076281e-06 1.014829494376287165e-03 8.748823073678076281e-06 8.748823073678076281e-06 -2.168391472517738894e-03 2.032156614221355387e-04 1.195360627594392627e-04 2.032156614221355387e-04 7.493077558900437276e-05 8.748823073678076281e-06 8.748823073678076281e-06 9.990730825486974220e-01 8.748823073678076281e-06 -7.493077558900437276e-05 8.748823073678076281e-06 -1.566666246228490050e-03 8.748823073678076281e-06 8.748823073678076281e-06 3.268435789178762035e-04 3.268435789178762035e-04 2.431639802550391845e-04 3.268435789178762035e-04 7.493077558900437276e-05 8.748823073678076281e-06 8.748823073678076281e-06 8.748823073678076281e-06 8.748823073678076281e-06 8.748823073678076281e-06 8.748823073678076281e-06 8.748823073678076281e-06 8.748823073678076281e-06
3.384538868863101041e-02 3.384538868863101041e-02 3.384538868863101041e-02 3.384538868863101041e-02 3.384538868863101041e-02 3.384538868863101041e-02 3.384538868863101041e-02 3.384538868863101041e-02 -8.720316536953577613e-03 8.379581722673373062e-03 -1.674549042900426443e-02 8.379581722673373062e-03 -8.720316536953577613e-03 3.384538868863101041e-02 3.384538868863101041e-02 6.509376296245818064e-05 3.384538868863101041e-02 8.720316536953577613e-03 3.384538868863101041e-02 3.577941645751829596e-05 3.384538868863101041e-02 3.384538868863101041e-02 -7.645375780072391329e-05 8.381205583461372177e-03 -1.674386656821608144e-02 8.381205583461372177e-03 -8.720316536953577613e-03 3.384538868863101041e-02 3.384538868863101041e-02 -3.268069878528737760e-05 3.384538868863101041e-02 8.720316536953577613e-03 3.384538868863101041e-02 -5.523759252776843423e-05 3.384538868863101041e-02 3.384538868863101041e-02 6.292054186492960881e-03 6.292054186492960881e-03 -1.883301796518459942e-02 6.292054186492960881e-03 -8.720316536953577613e-03 3.384538868863101041e-02 3.384538868863101041e-02 3.384538868863101041e-02 3.384538868863101041e-02 3.384538868863101041e-02 3.384538868863101041e-02 3.384538868863101041e-02 3.384538868863101041e-02
8.725690288864175123e-03 8.725690288864175123e-03 8.725690288864175123e-03 8.725690288864175123e-03 8.725690288864175123e-03 8.725690288864175123e-03 8.725690288864175123e-03 8.725690288864175123e-03 -1.259361265133062124e-01 -3.902978391447207984e-02 7.818065230996999737e-02 -3.902978391447207984e-02 -1.259361265133062124e-01 8.725690288864175123e-03 8.725690288864175123e-03 5.764534365623886613e-04 8.725690288864175123e-03 1.259361265133062124e-01 8.725690288864175123e-03 3.168543462917634791e-04 8.725690288864175123e-03 8.725690288864175123e-03 -6.770494835269204228e-04 -3.901540416572403525e-02 7.819503205871798646e-02 -3.901540416572403525e-02 -1.259361265133062124e-01 8.725690288864175123e-03 8.725690288864175123e-03 -2.894144220858397946e-04 8.725690288864175123e-03 1.259361265133062124e-01 8.725690288864175123e-03 -4.891709006768565904e-04 8.725690288864175123e-03 8.725690288864175123e-03 -2.920708939535576754e-02 -2.920708939535576754e-02 8.800334682908624029e-02 -2.920708939535576754e-02 -1.259361265133062124e-01 8.725690288864175123e-03 8.725690288864175123e-03 8.725690288864175123e-03 8.725690288864175123e-03 8.725690288864175123e-03 8.725690288864175123e-03 8.725690288864175123e-03 8.725690288864175123e-03
3.384538868863101041e-02 3.384538868863101041e-02 3.384538868863101041e-02 3.384538868863101041e-02 3.384538868863101041e-02 3.384538868863101041e-02 3.384538868863101041e-02 3.384538868863101041e-02 -8.720316536953577613e-03 8.379581722673373062e-03 -1.674549042900426443e-02 8.379581722673373062e-03 -8.720316536953577613e-03 3.384538868863101041e-02 3.384538868863101041e-02 6.509376296245818064e-05 3.384538868863101041e-02 8.720316536953577613e-03 3.384538868863101041e-02 3.577941645751829596e-05 3.384538868863101041e-02 3.384538868863101041e-02 -7.645375780072391329e-05 8.381205583461372177e-03 -1.674386656821608144e-02 8.381205583461372177e-03 -8.720316536953577613e-03 3.384538868863101041e-02 3.384538868863101041e-02 -3.268069878528737760e-05 3.384538868863101041e-02 8.720316536953577613e-03 3.384538868863101041e-02 -5.523759252776843423e-05 3.384538868863101041e-02 3.384538868863101041e-02 6.292054186492960881e-03 6.292054186492960881e-03 -1.883301796518459942e-02 6.292054186492960881e-03 -8.720316536953577613e-03 3.384538868863101041e-02 3.384538868863101041e-02 3.384538868863101041e-02 3.384538868863101041e-02 3.384538868863101041e-02 3.384538868863101041e-02 3.384538868863101041e-02 3.384538868863101041e-02
1.075365562967253477e-05 1.075365562967253477e-05 1.075365562967253477e-05 1.075365562967253477e-05 1.075365562967253477e-05 1.075365562967253477e-05 1.075365562967253477e-05 1.075365562967253477e-05 9.209778276689443012e-05 1.931746721708733818e-04 9.032323377427449733e-05 1.931746721708733818e-04 9.209778276689443012e-05 1.075365562967253477e-05 1.075365562967253477e-05 2.269269099534142187e-03 1.075365562967253477e-05 -9.209778276689443012e-05 1.075365562967253477e-05 1.247371674650801527e-03 1.075365562967253477e-05 1.075365562967253477e-05 -2.665241162945974039e-03 2.497783357757313088e-04 1.469268973792191876e-04 2.497783357757313088e-04 9.209778276689443012e-05 1.075365562967253477e-05 1.075365562967253477e-05 -1.139312186021900972e-03 1.075365562967253477e-05 -9.209778276689443012e-05 1.075365562967253477e-05 9.980743539257854735e-01 1.075365562967253477e-05 1.075365562967253477e-05 4.017354231343124886e-04 4.017354231343124886e-04 2.988839847378302371e-04 4.017354231343124886e-04 9.209778276689443012e-05 1.075365562967253477e-05 1.075365562967253477e-05 1.075365562967253477e-05 1.075365562967253477e-05 1.075365562967253477e-05 1.075365562967253477e-05 1.075365562967253477e-05 1.075365562967253477e-05
3.384538868863101041e-02 3.384538868863101041e-02 3.384538868863101041e-02 3.384538868863101041e-02 3.384538868863101041e-02 3.384538868863101041e-02 3.384538868863101041e-02 3.384538868863101041e-02 -8.720316536953577613e-03 8.379581722673373062e-03 -1.674549042900426443e-02 8.379581722673373062e-03 -8.720316536953577613e-03 3.384538868863101041e-02 3.384538868863101041e-02 6.509376296245818064e-05 3.384538868863101041e-02 8.720316536953577613e-03 3.384538868863101041e-02 3.577941645751829596e-05 3.384538868863101041e-02 3.384538868863101041e-02 -7.645375780072391329e-05 8.381205583461372177e-03 -1.674386656821608144e-02 8.381205583461372177e-03 -8.720316536953577613e-03 3.384538868863101041e-02 3.384538868863101041e-02 -3.268069878528737760e-05 3.384538868863101041e-02 8.720316536953577613e-03 3.384538868863101041e-02 -5.523759252776843423e-05 3.384538868863101041e-02 3.384538868863101041e-02 6.292054186492960881e-03 6.292054186492960881e-03 -1.883301796518459942e-02 6.292054186492960881e-03 -8.720316536953577613e-03 3.384538868863101041e-02 3.384538868863101041e-02 3.384538868863101041e-02 3.384538868863101041e-02 3.384538868863101041e-02 3.384538868863101041e-02 3.384538868863101041e-02 3.384538868863101041e-02
3.384538868863101041e-02 3.384538868863101041e-02 3.384538868863101041e-02 3.384538868863101041e-02 3.384538868863101041e-02 3.384538868863101041e-02 3.384538868863101041e-02 3.384538868863101041e-02 -8.720316536953577613e-03 8.379581722673373062e-03 -1.674549042900426443e-02 8.379581722673373062e-03 -8.720316536953577613e-03 3.384538868863101041e-02 3.384538868863101041e-02 6.509376296245818064e-05 3.384538868863101041e-02 8.720316536953577613e-03 3.384538868863101041e-02 3.577941645751829596e-05 3.384538868863101041e-02 3.384538868863101041e-02 -7.645375780072391329e-05 8.381205583461372177e-03 -1.674386656821608144e-02 8.381205583461372177e-03 -8.720316536953577613e-03 3.384538868863101041e-02 3.384538868863101041e-02 -3.268069878528737760e-05 3.384538868863101041e-02 8.720316536953577613e-03 3.384538868863101041e-02 -5.523759252776843423e-05 3.384538868863101041e-02 3.384538868863101041e-02 6.292054186492960881e-03 6.292054186492960881e-03 -1.883301796518459942e-02 6.292054186492960881e-03 -8.720316536953577613e-03 3.384538868863101041e-02 3.384538868863101041e-02 3.384538868863101041e-02 3.384538868863101041e-02 3.384538868863101041e-02 3.384538868863101041e-02 3.384538868863101041e-02 3.384538868863101041e-02
6.274928431279700250e-03 6.274928431279700250e-03 6.274928431279700250e-03 6.274928431279700250e-03 6.274928431279700250e-03 6.274928431279700250e-03 6.274928431279700250e-03 6.274928431279700250e-03 2.926115687613847424e-02 1.176258656993220061e-02 -2.377349873748577438e-02 1.176258656993220061e-02 2.926115687613847424e-02 6.274928431279700250e-03 6.274928431279700250e-03 -1.182205518194768537e-03 6.274928431279700250e-03 -2.926115687613847424e-02 6.274928431279700250e-03 -6.498200870502481496e-04 6.274928431279700250e-03 6.274928431279700250e-03 1.388509457131721593e-03 1.173309609306388140e-02 -2.380298921435412482e-02 1.173309609306388140e-02 2.926115687613847424e-02 6.274928431279700250e-03 6.274928431279700250e-03 5.935358392845298562e-04 6.274928431279700250e-03 -2.926115687613847424e-02 6.274928431279700250e-03 1.003197597597937441e-03 6.274928431279700250e-03 6.274928431279700250e-03 2.586881276562927323e-01 2.586881276562927323e-01 2.231520423488744242e-01 2.586881276562927323e-01 2.926115687613847424e-02 6.274928431279700250e-03 6.274928431279700250e-03 6.274928431279700250e-03 6.274928431279700250e-03 6.274928431279700250e-03 6.274928431279700250e-03 6.274928431279700250e-03 6.274928431279700250e-03
6.274928431279700250e-03 6.274928431279700250e-03 6.274928431279700250e-03 6.274928431279700250e-03 6.274928431279700250e-03 6.274928431279700250e-03 6.274928431279700250e-03 6.274928431279700250e-03 2.926115687613847424e-02 1.176258656993220061e-02 -2.377349873748577438e-02 1.176258656993220061e-02 2.926115687613847424e-02 6.274928431279700250e-03 6.274928431279700250e-03 -1.182205518194768537e-03 6.274928431279700250e-03 -2.926115687613847424e-02 6.274928431279700250e-03 -6.498200870502481496e-04 6.274928431279700250e-03 6.274928431279700250e-03 1.388509457131721593e-03 1.173309609306388140e-02 -2.380298921435412482e-02 1.173309609306388140e-02 2.926115687613847424e-02 6.274928431279700250e-03 6.274928431279700250e-03 5.935358392845298562e-04 6.274928431279700250e-03 -2.926115687613847424e-02 6.274928431279700250e-03 1.003197597597937441e-03 6.274928431279700250e-03 6.274928431279700250e-03 2.586881276562927323e-01 2.586881276562927323e-01 2.231520423488744242e-01 2.586881276562927323e-01 2.926115687613847424e-02 6.274928431279700250e-03 6.274928431279700250e-03 6.274928431279700250e-03 6.274928431279700250e-03 6.274928431279700250e-03 6.274928431279700250e-03 6.274928431279700250e-03 6.274928431279700250e-03
-1.884476996848712463e-02 -1.884476996848712463e-02 -1.884476996848712463e-02 -1.884476996848712463e-02 -1.884476996848712463e-02 -1.884476996848712463e-02 -1.884476996848712463e-02 -1.884476996848712463e-02 -8.795465310021417793e-02 -3.564677906721325923e-02 7.115264400148867130e-02 -3.564677906721325923e-02 -8.795465310021417793e-02 -1.884476996848712463e-02 -1.884476996848712463e-02 -6.708458445948649578e-04 -1.884476996848712463e-02 8.795465310021417793e-02 -1.884476996848712463e-02 -3.687451572160850609e-04 -1.884476996848712463e-02 -1.884476996848712463e-02 7.879137314058305436e-04 -3.566351365612158847e-02 7.113590941258000899e-02 -3.566351365612158847e-02 -8.795465310021417793e-02 -1.884476996848712463e-02 -1.884476996848712463e-02 3.368021159842252404e-04 -1.884476996848712463e-02 8.795465310021417793e-02 -1.884476996848712463e-02 5.692642894488293692e-04 -1.884476996848712463e-02 -1.884476996848712463e-02 2.231889840744438191e-01 2.231889840744438191e-01 3.299884071431453125e-01 2.231889840744438191e-01 -8.795465310021417793e-02 -1.884476996848712463e-02 -1.884476996848712463e-02 -1.884476996848712463e-02 -1.884476996848712463e-02 -1.884476996848712463e-02 -1.884476996848712463e-02 -1.884476996848712463e-02 -1.884476996848712463e-02
6.274928431279700250e-03 6.274928431279700250e-03 6.274928431279700250e-03 6.274928431279700250e-03 6.274928431279700250e-03 6.274928431279700250e-03 6.274928431279700250e-03 6.274928431279700250e-03 2.926115687613847424e-02 1.176258656993220061e-02 -2.377349873748577438e-02 1.176258656993220061e-02 2.926115687613847424e-02 6.274928431279700250e-03 6.274928431279700250e-03 -1.182205518194768537e-03 6.274928431279700250e-03 -2.926115687613847424e-02 6.274928431279700250e-03 -6.498200870502481496e-04 6.274928431279700250e-03 6.274928431279700250e-03 1.388509457131721593e-03 1.173309609306388140e-02 -2.380298921435412482e-02 1.173309609306388140e-02 2.926115687613847424e-02 6.274928431279700250e-03 6.274928431279700250e-03 5.935358392845298562e-04 6.274928431279700250e-03 -2.926115687613847424e-02 6.274928431279700250e-03 1.003197597597937441e-03 6.274928431279700250e-03 6.274928431279700250e-03 2.586881276562927323e-01 2.586881276562927323e-01 2.231520423488744242e-01 2.586881276562927323e-01 2.926115687613847424e-02 6.274928431279700250e-03 6.274928431279700250e-03 6.274928431279700250e-03 6.274928431279700250e-03 6.274928431279700250e-03 6.274928431279700250e-03 6.274928431279700250e-03 6.274928431279700250e-03
-8.725690288864175123e-03 -8.725690288864175123e-03 -8.725690288864175123e-03 -8.725690288864175123e-03 -8.725690288864175123e-03 -8.725690288864175123e-03 -8.725690288864175123e-03 -8.725690288864175123e-03 1.259361265133062124e-01 3.902978391447207984e-02 -7.818065230996999737e-02 3.902978391447207984e-02 1.259361265133062124e-01 -8.725690288864175123e-03 -8.725690288864175123e-03 -5.764534365623886613e-04 -8.725690288864175123e-03 -1.259361265133062124e-01 -8.725690288864175123e-03 -3.168543462917634791e-04 -8.725690288864175123e-03 -8.725690288864175123e-03 6.770494835269204228e-04 3.901540416572403525e-02 -7.819503205871798646e-02 3.901540416572403525e-02 1.259361265133062124e-01 -8.725690288864175123e-03 -8.725690288864175123e-03 2.894144220858397946e-04 -8.725690288864175123e-03 -1.259361265133062124e-01 -8.725690288864175123e-03 4.891709006768565904e-04 -8.725690288864175123e-03 -8.725690288864175123e-03 2.920708939535576754e-02 2.920708939535576754e-02 -8.800334682908624029e-02 2.920708939535576754e-02 1.259361265133062124e-01 -8.725690288864175123e-03 -8.725690288864175123e-03 -8.725690288864175123e-03 -8.725690288864175123e-03 -8.725690288864175123e-03 -8.725690288864175123e-03 -8.725690288864175123e-03 -8.725690288864175123e-03
3.384538868863101041e-02 3.384538868863101041e-02 3.384538868863101041e-02 3.384538868863101041e-02 3.384538868863101041e-02 3.384538868863101041e-02 3.384538868863101041e-02 3.384538868863101041e-02 -8.720316536953577613e-03 8.379581722673373062e-03 -1.674549042900426443e-02 8.379581722673373062e-03 -8.720316536953577613e-03 3.384538868863101041e-02 3.384538868863101041e-02 6.509376296245818064e-05 3.384538868863101041e-02 8.720316536953577613e-03 3.384538868863101041e-02 3.577941645751829596e-05 3.384538868863101041e-02 3.384538868863101041e-02 -7.645375780072391329e-05 8.381205583461372177e-03 -1.674386656821608144e-02 8.381205583461372177e-03 -8.720316536953577613e-03 3.384538868863101041e-02 3.384538868863101041e-02 -3.268069878528737760e-05 3.384538868863101041e-02 8.720316536953577613e-03 3.384538868863101041e-02 -5.523759252776843423e-05 3.384538868863101041e-02 3.384538868863101041e-02 6.292054186492960881e-03 6.292054186492960881e-03 -1.883301796518459942e-02 6.292054186492960881e-03 -8.720316536953577613e-03 3.384538868863101041e-02 3.384538868863101041e-02 3.384538868863101041e-02 3.384538868863101041e-02 3.384538868863101041e-02 3.384538868863101041e-02 3.384538868863101041e-02 3.384538868863101041e-02
3.384538868863101041e-02 3.384538868863101041e-02 3.384538868863101041e-02 3.384538868863101041e-02 3.384538868863101041e-02 3.384538868863101041e-02 3.384538868863101041e-02 3.384538868863101041e-02 -8.720316536953577613e-03 8.379581722673373062e-03 -1.674549042900426443e-02 8.379581722673373062e-03 -8.720316536953577613e-03 3.384538868863101041e-02 3.384538868863101041e-02 6.509376296245818064e-05 3.384538868863101041e-02 8.720316536953577613e-03 3.384538868863101041e-02 3.577941645751829596e-05 3.384538868863101041e-02 3.384538868863101041e-02 -7.645375780072391329e-05 8.381205583461372177e-03 -1.674386656821608144e-02 8.381205583461372177e-03 -8.720316536953577613e-03 3.384538868863101041e-02 3.384538868863101041e-02 -3.268069878528737760e-05 3.384538868863101041e-02 8.720316536953577613e-03 3.384538868863101041e-02 -5.523759252776843423e-05 3.384538868863101041e-02 3.384538868863101041e-02 6.292054186492960881e-03 6.292054186492960881e-03 -1.883301796518459942e-02 6.292054186492960881e-03 -8.720316536953577613e-03 3.384538868863101041e-02 3.384538868863101041e-02 3.384538868863101041e-02 3.384538868863101041e-02 3.384538868863101041e-02 3.384538868863101041e-02 3.384538868863101041e-02 3.384538868863101041e-02
3.384538868863101041e-02 3.384538868863101041e-02 3.384538868863101041e-02 3.384538868863101041e-02 3.384538868863101041e-02 3.384538868863101041e-02 3.384538868863101041e-02 3.384538868863101041e-02 -8.720316536953577613e-03 8.379581722673373062e-03 -1.674549042900426443e-02 8.379581722673373062e-03 -8.720316536953577613e-03 3.384538868863101041e-02 3.384538868863101041e-02 6.509376296245818064e-05 3.384538868863101041e-02 8.720316536953577613e-03 3.384538868863101041e-02 3.577941645751829596e-05 3.384538868863101041e-02 3.384538868863101041e-02 -7.645375780072391329e-05 8.381205583461372177e-03 -1.674386656821608144e-02 8.381205583461372177e-03 -8.720316536953577613e-03 3.384538868863101041e-02 3.384538868863101041e-02 -3.268069878528737760e-05 3.384538868863101041e-02 8.720316536953577613e-03 3.384538868863101041e-02 -5.523759252776843423e-05 3.384538868863101041e-02 3.384538868863101041e-02 6.292054186492960881e-03 6.292054186492960881e-03 -1.883301796518459942e-02 6.292054186492960881e-03 -8.720316536953577613e-03 3.384538868863101041e-02 3.384538868863101041e-02 3.384538868863101041e-02 3.384538868863101041e-02 3.384538868863101041e-02 3.384538868863101041e-02 3.384538868863101041e-02 3.384538868863101041e-02
3.384538868863101041e-02 3.384538868863101041e-02 3.384538868863101041e-02 3.384538868863101041e-02 3.384538868863101041e-02 3.384538868863101041e-02 3.384538868863101041e-02 3.384538868863101041e-02 -8.720316536953577613e-03 8.379581722673373062e-03 -1.674549042900426443e-02 8.379581722673373062e-03 -8.720316536953577613e-03 3.384538868863101041e-02 3.384538868863101041e-02 6.509376296245818064e-05 3.384538868863101041e-02 8.720316536953577613e-03 3.384538868863101041e-02 3.577941645751829596e-05 3.384538868863101041e-02 3.384538868863101041e-02 -7.645375780072391329e-05 8.381205583461372177e-03 -1.674386656821608144e-02 8.381205583461372177e-03 -8.720316536953577613e-03 3.384538868863101041e-02 3.384538868863101041e-02 -3.268069878528737760e-05 3.384538868863101041e-02 8.720316536953577613e-03 3.384538868863101041e-02 -5.523759252776843423e-05 3.384538868863101041e-02 3.384538868863101041e-02 6.292054186492960881e-03 6.292054186492960881e-03 -1.883301796518459942e-02 6.292054186492960881e-03 -8.720316536953577613e-03 3.384538868863101041e-02 3.384538868863101041e-02 3.384538868863101041e-02 3.384538868863101041e-02 3.384538868863101041e-02 3.384538868863101041e-02 3.384538868863101041e-02 3.384538868863101041e-02
3.384538868863101041e-02 3.384538868863101041e-02 3.384538868863101041e-02 3.384538868863101041e-02 3.384538868863101041e-02 3.384538868863101041e-02 3.384538868863101041e-02 3.384538868863101041e-02 -8.720316536953577613e-03 8.379581722673373062e-03 -1.674549042900426443e-02 8.379581722673373062e-03 -8.720316536953577613e-03 3.384538868863101041e-02 3.384538868863101041e-02 6.509376296245818064e-05 3.384538868863101041e-02 8.720316536953577613e-03 3.384538868863101041e-02 3.577941645751829596e-05 3.384538868863101041e-02 3.384538868863101041e-02 -7.645375780072391329e-05 8.381205583461372177e-03 -1.674386656821608144e-02 8.381205583461372177e-03 -8.720316536953577613e-03 3.384538868863101041e-02 3.384538868863101041e-02 -3.268069878528737760e-05 3.384538868863101041e-02 8.720316536953577613e-03 3.384538868863101041e-02 -5.523759252776843423e-05 3.384538868863101041e-02 3.384538868863101041e-02 6.292054186492960881e-03 6.292054186492960881e-03 -1.883301796518459942e-02 6.292054186492960881e-03 -8.720316536953577613e-03 3.384538868863101041e-02 3.384538868863101041e-02 3.384538868863101041e-02 3.384538868863101041e-02 3.384538868863101041e-02 3.384538868863101041e-02 3.384538868863101041e-02 3.384538868863101041e-02
3.384538868863101041e-02 3.384538868863101041e-02 3.384538868863101041e-02 3.384538868863101041e-02 3.384538868863101041e-02 3.384538868863101041e-02 3.384538868863101041e-02 3.384538868863101041e-02 -8.720316536953577613e-03 8.379581722673373062e-03 -1.674549042900426443e-02 8.379581722673373062e-03 -8.720316536953577613e-03 3.384538868863101041e-02 3.384538868863101041e-02 6.509376296245818064e-05 3.384538868863101041e-02 8.720316536953577613e-03 3.384538868863101041e-02 3.577941645751829596e-05 3.384538868863101041e-02 3.384538868863101041e-02 -7.645375780072391329e-05 8.381205583461372177e-03 -1.674386656821608144e-02 8.381205583461372177e-03 -8.720316536953577613e-03 3.384538868863101041e-02 3.384538868863101041e-02 -3.268069878528737760e-05 3.384538868863101041e-02 8.720316536953577613e-03 3.384538868863101041e-02 -5.523759252776843423e-05 3.384538868863101041e-02 3.384538868863101041e-02 6.292054186492960881e-03 6.292054186492960881e-03 -1.883301796518459942e-02 6.292054186492960881e-03 -8.720316536953577613e-03 3.384538868863101041e-02 3.384538868863101041e-02 3.384538868863101041e-02 3.384538868863101041e-02 3.384538868863101041e-02 3.384538868863101041e-02 3.384538868863101041e-02 3.384538868863101041e-02
3.384538868863101041e-02 3.384538868863101041e-02 3.384538868863101041e-02 3.384538868863101041e-02 3.384538868863101041e-02 3.384538868863101041e-02 3.384538868863101041e-02 3.384538868863101041e-02 -8.720316536953577613e-03 8.379581722673373062e-03 -1.674549042900426443e-02 8.379581722673373062e-03 -8.720316536953577613e-03 3.384538868863101041e-02 3.384538868863101041e-02 6.509376296245818064e-05 3.384538868863101041e-02 8.720316536953577613e-03 3.384538868863101041e-02 3.577941645751829596e-05 3.384538868863101041e-02 3.384538868863101041e-02 -7.645375780072391329e-05 8.381205583461372177e-03 -1.674386656821608144e-02 8.381205583461372177e-03 -8.720316536953577613e-03 3.384538868863101041e-02 3.384538868863101041e-02 -3.268069878528737760e-05 3.384538868863101041e-02 8.720316536953577613e-03 3.384538868863101041e-02 -5.523759252776843423e-05 3.384538868863101041e-02 3.384538868863101041e-02 6.292054186492960881e-03 6.292054186492960881e-03 -1.883301796518459942e-02 6.292054186492960881e-03 -8.720316536953577613e-03 3.384538868863101041e-02 3.384538868863101041e-02 3.384538868863101041e-02 3.384538868863101041e-02 3.384538868863101041e-02 3.384538868863101041e-02 3.384538868863101041e-02 3.384538868863101041e-02
3.384538868863101041e-02 3.384538868863101041e-02 3.384538868863101041e-02 3.384538868863101041e-02 3.384538868863101041e-02 3.384538868863101041e-02 3.384538868863101041e-02 3.384538868863101041e-02 -8.720316536953572409e-03 8.379581722673333163e-03 -1.674549042900417770e-02 8.379581722673333163e-03 -8.720316536953572409e-03 3.384538868863101041e-02 3.384538868863101041e-02 6.509376296243340662e-05 3.384538868863101041e-02 8.720316536953572409e-03 3.384538868863101041e-02 3.577941645756938898e-05 3.384538868863101041e-02 3.384538868863101041e-02 -7.645375780076440824e-05 8.381205583461384320e-03 -1.674386656821615776e-02 8.381205583461384320e-03 -8.720316536953572409e-03 3.384538868863101041e-02 3.384538868863101041e-02 -3.268069878531566173e-05 3.384538868863101041e-02 8.720316536953572409e-03 3.384538868863101041e-02 -5.523759252781170744e-05 3.384538868863101041e-02 3.384538868863101041e-02 6.292054186492943534e-03 6.292054186492943534e-03 -1.883301796518453350e-02 6.292054186492943534e-03 -8.720316536953572409e-03 3.384538868863101041e-02 3.384538868863101041e-02 3.384538868863101041e-02 3.384538868863101041e-02 3.384538868863101041e-02 3.384538868863101041e-02 3.384538868863101041e-02 3.384538868863101041e-02
